#ifndef COMPLEXFN_2L_MODEL_DATA_H
#define COMPLEXFN_2L_MODEL_DATA_H

/*
 Author: Mouli Sankaran 
 CAUTION: This is an auto generated file.
 DO NOT EDIT OR MAKE ANY CHANGES TO IT.
 This model data was generated on Wed Apr 14 23:21:36 2021

 Tools used:
 Python:3.7.10 | packaged by conda-forge | (default, Feb 19 2021, 15:37:01) [MSC v.1916 64 bit (AMD64)]
 Numpy:1.19.5
 TensorFlow:3.7.10 | packaged by conda-forge | (default, Feb 19 2021, 15:37:01) [MSC v.1916 64 bit (AMD64)]
 Keras: 2.4.0

 Model details are:
 NUM_OF_EPOCHS = 1200
 BATCH_SIZE    = 16
*/


const int DENSE1_SIZE = 32;
const int DENSE2_SIZE = 32;

float W1_data[] = {
    -0.011816f, 0.136045f, -0.027172f, 0.422175f, 0.001444f, -0.399717f, -0.139273f, -0.168376f, -0.035166f, -0.411480f, -0.039331f, -0.041779f, -0.194801f, 0.212497f, -0.145513f, -0.022211f, -0.046667f, -0.354765f, -0.368434f, -0.090832f, -0.159193f, 0.277592f, 0.386186f, 0.429341f, -0.219258f, -0.272327f, 0.177355f, -0.206075f, -0.107299f, -0.149012f, 0.474103f, -0.113438f
};

float b1_data[] = {
    0.000000f, -0.233638f, 0.000385f, -0.602316f, -0.012690f, 0.000000f, 0.000000f, 1.044874f, 0.000000f, 0.000000f, 0.000340f, 0.000000f, 0.000000f, -0.010570f, 0.881777f, 0.000000f, 0.000000f, 0.000000f, 0.000000f, 0.542934f, 0.986492f, -0.260322f, -0.097725f, -0.810987f, 0.000000f, 0.000000f, -0.471662f, 0.927646f, 0.640019f, 0.904975f, -0.566291f, 0.680072f
};

float W2_data[] = {
    0.122485f, 0.148767f, 0.252904f, -0.010395f, 0.280646f, 0.139515f, 0.132587f, -0.133817f, -0.035313f, -0.062701f, 0.131375f, -0.077814f, 0.230265f, -0.160388f, 0.036085f, -0.255000f, 0.011951f, 0.006241f, -0.111815f, 0.258794f, 0.085166f, 0.250122f, 0.174728f, 0.183472f, 0.167880f, -0.120935f, 0.060355f, 0.224219f, 0.244792f, 0.081182f, -0.090811f, 0.098342f, -1.419504f, 0.020265f, 0.190146f, 0.166366f, -0.121072f, 0.056427f, 0.300403f, 0.270807f, -0.257418f, 0.023535f, -0.067442f, -0.180351f, 0.097653f, -0.273751f, -0.216511f, -0.068057f, 0.121147f, 0.241729f, -0.102555f, -0.222411f, 0.101462f, 0.371136f, 0.125911f, -0.055546f, -0.045606f, 0.035018f, -0.026547f, -0.241948f, 0.135056f, 0.059154f, 0.263476f, -1.259560f, -0.124610f, 0.055944f, 0.070003f, 0.061091f, 0.305554f, 0.241984f, 0.112190f, -0.030545f, -0.296848f, -0.224026f, 0.101654f, -0.158789f, 0.204925f, 0.099172f, -0.014182f, 0.049487f, 0.109031f, -0.121955f, 0.283652f, -0.309796f, 0.296040f, 0.076432f, -0.788100f, -0.178907f, 0.094674f, 0.312976f, -0.046870f, -0.282737f, 0.187461f, -0.224736f, -0.185818f, 0.122683f, -0.841895f, 0.388404f, -0.186736f, -0.167781f, 0.064311f, 0.162113f, 0.197115f, 0.289764f, 0.119148f, -0.094951f, 0.063721f, 0.132876f, 0.141981f, -0.066292f, -0.184588f, 0.209432f, 0.266390f, 0.300505f, 0.093916f, 0.056017f, -0.220434f, 0.157970f, 0.493218f, 0.414017f, -0.199958f, 0.058631f, -0.177459f, -0.232459f, -0.104869f, 0.073484f, 0.133805f, -1.136511f, 0.307611f, -0.216860f, 0.318724f, 0.136990f, 0.117184f, -0.027751f, -0.131795f, 0.191080f, 0.245358f, -0.183757f, 0.327868f, -0.259896f, 0.300136f, 0.274782f, -0.000720f, 0.243210f, 0.241754f, -0.009286f, -0.155345f, -0.065711f, -0.238212f, -0.007134f, -1.604557f, 0.085552f, 0.006852f, 0.178145f, 0.065985f, 0.034317f, 0.305929f, 0.095042f, -0.214316f, -0.059488f, -0.092518f, -0.085652f, -0.055357f, -0.170753f, 0.010804f, 0.206789f, 0.058013f, 0.028384f, -0.193023f, -0.028979f, 0.272906f, 0.174910f, 0.067441f, -0.151280f, 0.198756f, 0.022144f, 0.055851f, 0.004973f, 0.033341f, 0.159089f, 0.024442f, 0.305891f, -0.101199f, 0.175389f, 0.195006f, -0.237306f, -0.268002f, 0.145799f, 0.265830f, -0.002815f, -0.084797f, 0.123376f, 0.117135f, -0.220711f, 0.213736f, -0.011711f, -0.111305f, -0.148760f, -0.035039f, -0.133460f, -0.168247f, 0.129560f, 0.298594f, -0.071813f, 0.229233f, -0.111919f, -0.238621f, -0.095427f, -0.223789f, 0.295526f, -0.292406f, 0.036371f, -0.156959f, -0.007600f, 0.030836f, 0.173267f, -0.152688f, -0.095491f, -0.211220f, -0.272448f, -0.258131f, -0.205366f, -0.179107f, 0.049425f, 0.739760f, -0.270387f, 0.253633f, -0.043588f, 0.315789f, 0.539852f, 0.185838f, -2.436828f, -0.172953f, 0.036950f, 0.086150f, -0.455684f, 0.119930f, 0.230049f, 0.011784f, 0.302118f, -0.102598f, -0.211546f, -0.444925f, -0.163509f, -0.262357f, -0.352845f, 0.503639f, -0.198510f, -0.223228f, -0.399561f, -0.144602f, -0.120051f, -0.220531f, -0.390023f, -0.444447f, 0.528434f, 0.245856f, -0.144557f, -0.029520f, -0.273121f, 0.193038f, -0.244873f, 0.225054f, 0.189029f, -0.034670f, -0.245346f, -0.061897f, 0.303767f, -0.260561f, 0.065959f, 0.096812f, 0.061445f, 0.265859f, -0.161913f, -0.087977f, 0.088917f, 0.145602f, 0.176993f, 0.100857f, -0.175201f, 0.186491f, 0.101613f, -0.303514f, 0.084817f, 0.050610f, -0.292421f, 0.212339f, -0.054354f, 0.145429f, -0.261738f, 0.101964f, 0.142278f, 0.015643f, -0.283665f, 0.100366f, 0.102165f, 0.216168f, -0.235799f, -0.214706f, 0.222006f, 0.258318f, 0.173271f, -0.170602f, -0.252742f, 0.095271f, -0.261964f, -0.114616f, 0.190173f, -0.194843f, -0.076850f, -0.260190f, -0.296678f, 0.121445f, 0.122370f, -0.050604f, 0.273670f, -0.207117f, -0.029599f, 0.074608f, 0.042262f, 0.168838f, -0.368409f, 0.282760f, -0.528216f, 0.362375f, 0.094199f, 0.129678f, -0.016712f, 0.203747f, 0.152875f, -0.275115f, -0.140824f, 0.481005f, 0.355167f, 0.253987f, 0.401710f, -0.234467f, -0.275976f, -0.147958f, 0.013791f, -0.061498f, 0.046343f, -0.272111f, -0.087196f, -0.226819f, -0.100997f, 0.123362f, 0.117753f, -0.401895f, -0.142873f, -0.069120f, 0.157101f, -0.241886f, -0.046517f, -0.177427f, 0.024065f, 0.010093f, 0.298395f, -0.119109f, -0.183436f, 0.227034f, 0.232789f, -0.265726f, -0.245654f, 0.097907f, -0.305810f, -0.074814f, -0.020322f, 0.090909f, 0.059004f, -0.217964f, 0.072157f, 0.198115f, 0.011150f, -0.265282f, -0.112964f, 0.061606f, -0.251457f, 0.255626f, 0.033569f, 0.015107f, -0.252550f, 0.274783f, 0.027085f, 0.131775f, 0.148684f, 0.224812f, 0.204535f, -0.298802f, -0.192619f, -0.136261f, -0.167139f, 0.046703f, -0.192211f, -0.027689f, -0.171861f, -0.236989f, 0.169070f, -0.187815f, -0.217347f, 0.034505f, -0.298431f, 0.158017f, -0.011835f, 0.026073f, 0.211912f, -0.003853f, -0.217826f, 0.190323f, -0.100179f, 0.238306f, 0.184330f, -0.204766f, -0.126615f, 0.014080f, -0.090681f, 0.218154f, -0.102892f, 0.208065f, 0.259289f, 0.235878f, 0.218374f, 0.299720f, 0.024955f, 0.176237f, 0.072309f, 0.166496f, 0.080676f, 0.318540f, 0.076184f, -0.188799f, 0.312764f, 0.284763f, -0.146476f, 0.137329f, -0.311404f, 0.015319f, -0.030428f, -2.186141f, 0.249028f, -0.151640f, 0.072410f, 0.204452f, -0.104788f, 0.235456f, 0.251894f, 0.279081f, 0.027252f, 0.573598f, -0.297314f, 0.203757f, -0.133507f, 0.516630f, 0.395525f, 0.125772f, -2.665743f, -0.167889f, -0.237866f, -0.170178f, -0.240718f, 0.621119f, 0.390212f, 0.101684f, 0.275260f, -0.426122f, -0.165693f, -0.139560f, 0.082757f, -0.132333f, -0.238904f, 0.332049f, -0.271917f, 0.031419f, 0.046574f, -0.039427f, 0.060801f, 0.081848f, -0.212330f, -0.243293f, 0.916848f, -0.299247f, -0.030437f, 0.123012f, 0.264213f, -0.221472f, 0.236928f, -0.110053f, 0.017627f, -0.000306f, 0.134562f, -0.077748f, 0.055398f, -0.153595f, 0.098139f, 0.000985f, 0.300938f, 0.263746f, 0.208663f, -0.220972f, -0.233701f, -0.201797f, 0.075573f, 0.079147f, 0.045874f, -0.060285f, -0.059244f, -0.069317f, 0.148159f, 0.235475f, -0.242388f, 0.271937f, 0.008455f, 0.262606f, -0.081713f, 0.256806f, -0.124980f, -0.165520f, -0.244637f, -0.261474f, 0.135558f, 0.249120f, 0.077394f, -0.218318f, 0.065098f, 0.056000f, 0.277785f, 0.064487f, -0.247215f, 0.111467f, -0.219019f, 0.275759f, 0.306182f, 0.086331f, 0.028590f, 0.070204f, -0.134919f, -0.006960f, -0.117645f, -0.274259f, 0.160827f, -0.173836f, 0.025469f, -0.189680f, 0.071831f, 0.029827f, 0.078845f, 0.232020f, -0.057797f, 0.006567f, 0.194745f, 0.266461f, -0.142197f, 0.014476f, -0.142090f, -0.223561f, 0.130055f, -0.194676f, 0.111970f, -0.008928f, -0.130042f, -0.121356f, 0.282158f, -0.149515f, 0.188070f, -0.298579f, -0.070729f, -0.024587f, 0.158508f, 0.159786f, -0.180560f, -0.223060f, -0.187510f, 0.227672f, 0.069879f, -0.169211f, 0.232312f, 0.014772f, -0.024358f, -0.015738f, -0.243836f, 0.097236f, -0.123133f, -0.129042f, 0.033168f, 0.153063f, -0.116122f, 0.221061f, -0.218534f, -0.047829f, -0.068674f, -0.262909f, 0.302125f, -0.258184f, 0.186591f, 0.158532f, 0.215670f, -0.077527f, 0.183371f, 0.129415f, 0.115423f, 0.159051f, 0.277524f, 0.066352f, -0.185701f, 0.091505f, -0.150067f, -0.065821f, -0.266406f, 0.393877f, -0.222285f, 0.236915f, 0.021196f, -0.004547f, 0.286968f, 0.469943f, -0.994083f, -0.157196f, 0.060023f, 0.079555f, -0.036803f, 0.367880f, 0.337889f, -0.151104f, 0.159853f, -0.341616f, -0.079891f, 0.121995f, -0.184537f, -0.107096f, 0.090237f, 0.227253f, -0.282073f, -0.029097f, 0.117996f, 0.004681f, -0.287805f, -0.144571f, -0.038991f, 0.002375f, 0.502074f, 0.633329f, -0.421362f, 0.168379f, -0.274607f, 0.363901f, 0.365108f, 0.367661f, -1.674587f, -0.222778f, -0.056378f, -0.001704f, -0.007205f, 0.016660f, 0.426209f, -0.175003f, 0.379854f, 0.119803f, -0.159593f, 0.051387f, 0.045833f, 0.284397f, 0.187947f, 0.379789f, -0.027820f, -0.009603f, -0.106905f, -0.298848f, 0.031979f, -0.358389f, -0.019579f, -0.313451f, 0.736147f, -1.128830f, -0.146957f, -0.134719f, -0.110429f, 0.312685f, 0.136899f, -0.008430f, -0.074367f, -0.115936f, -0.178705f, 0.082441f, 0.160755f, -0.005058f, 0.000303f, 0.224717f, 0.211604f, 0.342701f, 0.401831f, 0.170688f, 0.042057f, 0.258662f, 0.099688f, 0.898318f, 0.303917f, 0.268831f, -0.015706f, 0.185878f, -0.295051f, -0.080296f, 0.056953f, 0.070733f, -0.906402f, 0.487043f, 0.342801f, -0.004706f, 0.342952f, 0.186288f, 0.268194f, 0.280467f, 0.254368f, -0.267812f, -0.247540f, 0.092936f, -0.234677f, 0.109694f, -0.298531f, -0.249866f, -0.148155f, 0.228300f, 0.139204f, 0.210741f, -0.077743f, -0.095434f, 0.068085f, -2.071117f, 0.236041f, -0.093459f, -0.069012f, -0.006527f, -0.272393f, -0.016298f, 0.222109f, 0.266788f, -0.116717f, -1.103329f, 0.483340f, 0.124392f, 0.358482f, 0.107984f, 0.166986f, -0.221909f, 0.513796f, -0.282724f, -0.089611f, -0.127798f, 0.141415f, -0.202338f, -0.036720f, -0.151344f, 0.047510f, 0.128617f, -0.101087f, 0.001531f, 0.130098f, 0.098207f, 0.279881f, -0.373394f, -0.054441f, -0.142588f, 0.157953f, 0.052214f, 0.305101f, 0.270642f, -0.110310f, 0.109949f, -1.660949f, -0.061704f, 0.076228f, 0.108905f, -0.221237f, 0.057918f, -0.230380f, 0.127332f, 0.072087f, -0.110261f, 0.056911f, 0.086680f, -0.034189f, -0.061005f, 0.205556f, -0.199897f, -0.138824f, -0.101359f, -0.026810f, 0.174314f, -0.086681f, 0.169800f, -0.045801f, -0.197565f, 0.010936f, -0.287462f, -0.269086f, 0.206112f, -0.108555f, 0.206121f, 0.203055f, 0.139334f, 0.181894f, 0.108179f, -0.007975f, 0.137904f, -0.059373f, 0.154312f, 0.101934f, 0.023903f, -0.192474f, -0.211036f, -0.093442f, 0.149840f, -0.292098f, 0.234882f, -0.071873f, -0.119226f, 0.066526f, -0.287189f, 0.134918f, 0.275916f, -0.249896f, 0.173125f, 0.076855f, -0.271719f, -0.017728f, -0.182359f, -0.205680f, 0.061376f, -0.291954f, -0.063525f, 0.093093f, -0.198234f, -0.282984f, -3.665169f, 0.196840f, -0.180327f, 0.211493f, 0.013267f, 0.143699f, 0.136466f, 0.460349f, -0.232083f, -0.045850f, 0.095517f, -0.033481f, -0.028386f, -0.125884f, 0.175053f, -0.054852f, 0.178868f, 0.088698f, -0.132540f, -0.123114f, 0.140032f, 0.262472f, -0.122654f, 0.281767f, 0.127243f, 0.071725f, -0.261820f, 0.135709f, 0.040390f, -0.014488f, 0.266626f, -0.238147f, 0.517542f, -3.296296f, -2.287761f, -2.972161f, 2.271592f, 2.042220f, 2.029473f, -0.478766f, 0.081027f, 0.020800f, -2.745197f, -0.044976f, 2.242427f, -3.172164f, -0.158049f, 2.288941f, -3.054593f, -3.006691f, -2.835819f, 0.078968f, 0.191254f, -3.173646f, 0.466090f, -3.108244f, 0.261642f, -2.753306f, 0.274293f, 0.140104f, -2.710364f, -2.840168f, -3.224368f, 0.675185f, 0.343672f, -0.033595f, 0.055385f, -0.183519f, 0.061602f, 0.364192f, 0.128652f, -0.543911f, -0.154114f, 0.021018f, 0.083599f, -0.358261f, 0.429725f, 0.117859f, -0.204065f, -0.132986f, -0.148641f, 0.263192f, -0.115547f, -0.116719f, -0.127886f, -0.237331f, 0.075213f, -0.297070f, -0.040680f, 0.107637f, -0.098491f, -0.213418f, 0.151431f, 0.226862f, -0.061763f, 0.234314f, 0.655726f, 0.073850f, 0.121022f, -0.014710f, 0.429610f, 0.351522f, 0.332416f, -1.576254f, 0.069762f, -0.067924f, -0.126610f, -0.115645f, 0.440363f, 0.067092f, -0.296536f, 0.256335f, -0.009289f, -0.022034f, -0.175424f, -0.094700f, -0.232069f, -0.195458f, 0.088665f, -0.094544f, 0.019987f, 0.057926f, 0.126286f, -0.288776f, -0.330357f, -0.233463f, -0.135241f, 0.371465f, -1.203567f, 0.315156f, -0.171579f, -0.190796f, -0.062184f, -0.256609f, 0.254509f, 0.231296f, 0.125376f, 0.095402f, 0.003347f, -0.085801f, -0.186128f, 0.190028f, -0.269634f, 0.054678f, -0.024761f, 0.351668f, 0.079966f, 0.178761f, -0.244452f, 0.322038f, 0.238765f, 0.264634f, 0.116987f, 0.253383f, -0.118695f, 0.284457f, 0.431256f, 0.217231f, 0.202977f, -1.409516f, 0.481349f, -0.223876f, -0.027412f, 0.231298f, 0.337629f, 0.060706f, 0.354380f, -0.955850f, -0.303099f, -0.076036f, 0.042630f, -0.530640f, -0.059415f, 0.203864f, -0.024338f, 0.430883f, -0.248058f, -0.141707f, 0.177531f, -0.017080f, 0.083522f, -0.026459f, 0.312911f, -0.306232f, -0.155461f, -0.087350f, -0.010754f, 0.282211f, 0.243019f, -0.177103f, -0.095722f, 0.254741f
};

float b2_data[] = {
    0.829387f, 0.059562f, 0.134624f, 0.080102f, 0.058472f, 0.159834f, 0.144828f, -0.626451f, 0.000000f, 0.000000f, 0.128363f, -0.036162f, 0.095577f, 0.080919f, 0.000000f, 0.190316f, 0.096409f, 0.102854f, 0.095232f, -0.052346f, 0.000000f, 0.074582f, 0.019005f, 0.079120f, 0.000000f, 0.108470f, -0.024111f, 0.000000f, 0.089354f, 0.054361f, 0.040158f, 0.773070f
};

float W3_data[] = {
    1.723748f, 0.707798f, -0.298975f, 0.419130f, -0.356143f, -0.482197f, -0.358127f, -2.320555f, 0.298006f, 0.370343f, 0.356274f, 0.005072f, -0.354175f, -1.943027f, 0.064625f, -0.317007f, 0.605106f, 0.563954f, 0.441596f, -0.000896f, 0.210509f, 0.422309f, -1.733443f, 0.471593f, -0.295392f, 0.341798f, -0.264102f, -0.241047f, 0.561185f, 0.486105f, 0.639262f, 1.600078f
};

float b3_data[] = {
    -0.076204f
};

#endif //COMPLEXFN_2L_MODEL_DATA_H