#ifndef COMPLEXFN_2L_MODEL_DATA_H
#define COMPLEXFN_2L_MODEL_DATA_H

/*
 Author: Mouli Sankaran 
 CAUTION: This is an auto generated file.
 DO NOT EDIT OR MAKE ANY CHANGES TO IT.
 This model data was generated on Wed Apr 14 23:09:56 2021

 Tools used:
 Python:3.7.10 | packaged by conda-forge | (default, Feb 19 2021, 15:37:01) [MSC v.1916 64 bit (AMD64)]
 Numpy:1.19.5
 TensorFlow:3.7.10 | packaged by conda-forge | (default, Feb 19 2021, 15:37:01) [MSC v.1916 64 bit (AMD64)]
 Keras: 2.4.0

 Model details are:
 NUM_OF_EPOCHS = 900
 BATCH_SIZE    = 16
*/


const int DENSE1_SIZE = 32;
const int DENSE2_SIZE = 16;

float W1_data[] = {
    -0.011816f, 0.004746f, 0.493470f, 0.479083f, 0.416725f, -0.399717f, -0.139273f, 0.453629f, -0.035166f, -0.411480f, -0.057653f, -0.041779f, -0.194801f, 0.513529f, 0.247594f, -0.022211f, -0.046667f, -0.354765f, -0.368434f, -0.055177f, 0.053483f, 0.444784f, 0.669147f, 0.422192f, -0.219258f, -0.272327f, -0.052433f, -0.028233f, 0.319042f, -0.057036f, 0.095661f, 0.001157f
};

float b1_data[] = {
    0.000000f, -0.029838f, -0.826040f, -0.564095f, -0.814058f, 0.000000f, 0.000000f, -0.607432f, 0.000000f, 0.000000f, 1.394448f, 0.000000f, 0.000000f, -0.849452f, -0.751866f, 0.000000f, 0.000000f, 0.000000f, 0.000000f, 1.199188f, 0.141620f, 0.367961f, -0.971397f, -0.776006f, 0.000000f, 0.000000f, 1.326172f, 0.493348f, -0.854677f, 1.289462f, 1.376056f, -0.008022f
};

float W2_data[] = {
    0.141433f, 0.171781f, 0.292028f, -0.012003f, 0.324062f, 0.161098f, 0.153098f, -0.154519f, -0.040776f, -0.072401f, 0.151699f, -0.089852f, 0.265888f, -0.185201f, 0.041667f, -0.294449f, 0.013800f, 0.007206f, -0.102837f, 0.323045f, 0.098342f, 0.265630f, 0.201758f, 0.211856f, 0.193851f, -0.115624f, 0.082144f, 0.258905f, 0.282661f, 0.107294f, -0.079447f, 0.091045f, -0.279032f, -0.162196f, 0.170800f, 0.039771f, -0.138432f, 0.085391f, 0.350394f, -0.016843f, -0.297241f, -0.026918f, -0.216473f, -1.488205f, 0.074098f, -0.240175f, -0.361868f, -0.636279f, -0.010903f, 0.099581f, -0.187983f, -0.198828f, 0.117158f, 0.292343f, 0.165212f, -0.226465f, -0.052661f, -0.099698f, 0.035783f, -1.352239f, -0.551533f, 0.057168f, 0.105319f, -0.039007f, -0.209536f, 0.001430f, 0.073719f, 0.026897f, 0.190599f, 0.086654f, -0.058966f, -0.171315f, -0.342771f, -0.282127f, 0.058125f, -1.610634f, 0.049677f, 0.143199f, -0.072169f, -0.788354f, 0.072140f, -0.218355f, 0.300270f, -0.303068f, 0.341838f, 0.053018f, 0.280957f, -0.264842f, 0.109320f, 0.290857f, -0.020764f, -0.326477f, 0.178040f, -0.242751f, -0.199746f, 0.202994f, -0.040882f, 0.233540f, -0.311757f, -0.337966f, 0.114433f, 0.204856f, 0.266719f, 0.147612f, 0.137580f, -0.109640f, -0.105792f, 0.182792f, 0.194541f, -0.031620f, -0.213144f, 0.272862f, 0.123030f, 0.131951f, -0.010858f, 0.114965f, -0.254535f, 0.029232f, -0.190338f, 0.282210f, -0.230892f, -0.126443f, -0.145132f, -1.733588f, -0.306391f, 0.018935f, -0.076772f, -0.581853f, 0.120924f, -0.352817f, 0.327018f, 0.095839f, 0.117390f, -0.089933f, -0.198926f, 0.180158f, 0.283315f, -0.212184f, 0.269081f, -0.269662f, 0.314622f, 0.327464f, -0.000831f, 0.217518f, 0.199273f, -0.122420f, -0.243013f, -0.016394f, -0.275064f, -0.069860f, -0.102161f, 0.011490f, 0.007912f, 0.105144f, 0.110930f, 0.039626f, 0.282750f, 0.089693f, -0.273895f, -0.189802f, -0.106831f, -0.098903f, 0.266121f, 0.104487f, 0.012476f, -0.004481f, 0.066988f, 0.032775f, -0.116555f, 0.347086f, 0.661636f, 1.318074f, 0.409497f, 0.179883f, 0.213099f, 1.505500f, 0.064491f, 0.005742f, 0.038499f, 0.183700f, 0.028224f, 0.353212f, -0.116854f, 0.202522f, 0.225173f, -0.274017f, -0.309462f, 0.168354f, 0.306954f, -0.003251f, -0.097915f, 0.142462f, 0.135256f, -0.254855f, 0.246801f, -0.013523f, -0.128524f, -0.171774f, -0.040459f, -0.154106f, -0.194275f, 0.149603f, 0.344786f, -0.082923f, 0.264696f, -0.129233f, -0.275535f, -0.110190f, -0.258410f, 0.341244f, -0.427184f, -0.086149f, -0.181240f, 0.096132f, 0.035607f, 0.200071f, -0.176309f, -0.242241f, -0.334997f, -1.453322f, -0.674815f, -0.309655f, -0.392896f, -0.646060f, 0.220253f, -0.006631f, 0.036866f, -0.096637f, -0.038801f, 0.440811f, -0.232977f, 0.122248f, -0.199709f, -0.198610f, -0.010273f, 5.707196f, -0.575037f, -0.029505f, -0.136828f, -1.532271f, 0.069101f, -0.029680f, -0.348730f, -0.126684f, -0.302944f, -0.201480f, 0.270872f, 0.017605f, -0.257762f, -0.307084f, -0.134266f, -0.138622f, -0.066380f, -0.217695f, -0.242301f, 0.090424f, 0.283890f, -0.166920f, -0.034087f, -0.315373f, 0.222901f, -0.282755f, 0.259870f, 0.218272f, -0.040033f, -0.283302f, -0.071473f, 0.350760f, -0.300870f, 0.076163f, 0.111788f, 0.070951f, 0.306988f, -0.186961f, -0.101588f, 0.102673f, 0.168126f, 0.204374f, 0.116460f, -0.202305f, 0.215341f, 0.117332f, -0.350468f, 0.097938f, 0.058439f, -0.337658f, 0.245189f, -0.062762f, 0.167927f, -0.302229f, 0.117737f, 0.164288f, 0.018063f, -0.327548f, 0.115893f, 0.117970f, 0.249609f, -0.272277f, -0.247921f, 0.256351f, 0.298280f, 0.200076f, -0.196994f, -0.291841f, 0.110010f, -0.302490f, 0.145893f, 0.467377f, -0.224986f, -0.260695f, -0.300441f, -0.342574f, 0.223823f, 0.452748f, 0.240618f, 1.273101f, 0.026184f, 0.268151f, 0.026896f, 1.124400f, 0.064209f, -0.201636f, 0.221953f, -0.125538f, 0.058595f, -0.198920f, -0.253534f, -0.045940f, -0.030672f, 0.172175f, 0.242925f, -0.181033f, -0.996168f, 0.160015f, 0.075756f, 0.086248f, -0.210311f, -0.212378f, 0.347371f, 0.089982f, -0.071011f, 0.214821f, -0.249869f, 0.075964f, -0.858190f, 0.396631f, 0.264615f, 0.471284f, -1.319498f, 0.421477f, 0.193815f, 0.168369f, -0.279306f, -0.053713f, -0.239014f, -0.043364f, 0.011655f, 0.394215f, -0.137536f, -0.211813f, 0.262156f, 0.198372f, -0.335914f, -1.314332f, -0.410420f, -0.368950f, -0.236180f, -0.480177f, 0.104973f, 0.068132f, -0.330506f, -0.033342f, 0.228763f, 0.107080f, -0.306321f, -0.130440f, 0.071136f, -0.413161f, 0.215998f, -1.088045f, -0.024920f, -0.355278f, 0.155011f, -0.594537f, 0.152161f, 0.171685f, 0.259591f, 0.236176f, -0.345027f, -0.222417f, -0.157341f, -0.192995f, 0.053928f, -0.221946f, -0.031972f, -0.198448f, -0.273651f, 0.195225f, -0.216870f, -0.250971f, 0.039843f, -0.344598f, 0.182463f, -0.013665f, 0.030106f, 0.244695f, -0.004449f, -0.251524f, 0.219767f, -0.115677f, 0.275172f, 0.212846f, -0.236444f, -0.146203f, 0.016258f, -0.104710f, -0.035913f, -0.215257f, 0.476347f, 0.477010f, 0.241784f, 0.031552f, 0.289581f, -0.096978f, 0.262133f, 0.358143f, 0.380936f, 0.962332f, 0.500659f, 0.441970f, -0.290434f, 1.093795f, 0.249620f, -0.276428f, 0.169096f, -0.266231f, 0.017689f, -0.025074f, -0.246479f, 0.202026f, -0.211776f, 0.072785f, 0.340490f, 0.663335f, 0.103013f, 0.365106f, 0.063446f, 0.274433f, -0.149269f, -0.030700f, 0.147173f, 0.011230f, 0.214413f, 0.057201f, -0.325644f, -0.257137f, -0.193862f, -0.350915f, -0.077454f, 3.172862f, 0.142882f, 0.311164f, 0.093185f, -1.547693f, -0.288175f, 0.035627f, 0.306519f, 0.410503f, -0.152805f, -0.228229f, 0.074891f, -0.053327f, 0.089161f, 0.536799f, 0.296444f, 0.794900f, 0.430260f, 0.317644f, -0.048416f, 0.989710f, -0.345541f, -0.035145f, 0.360168f, 0.484991f, -0.255733f, 0.140668f, -0.127079f, 0.020354f, -0.044931f, 0.363990f, 0.143900f, 0.482142f, -0.523335f, 0.359133f, -0.069525f, 0.620615f, 0.304547f, 0.240943f, -0.070280f, -0.125256f, -0.233015f, -0.069334f, 0.091391f, 0.052971f, -1.598682f, 0.100065f, 0.113166f, 0.184037f, -0.671726f, -0.067520f, 0.384941f, 0.095411f
};

float b2_data[] = {
    0.000000f, 0.000000f, 0.277875f, 0.246186f, 0.000000f, -0.128250f, 0.000000f, 0.000000f, 0.053033f, 0.302959f, 0.298927f, 1.087681f, 0.209034f, 0.303203f, -0.036672f, 0.916975f
};

float W3_data[] = {
    0.223527f, 0.184351f, 0.583269f, 0.478119f, -0.279460f, -0.332144f, -0.327957f, -0.167131f, 2.709114f, 0.755694f, 0.812778f, 2.452523f, -1.939367f, 0.730006f, -0.001278f, -2.972091f
};

float b3_data[] = {
    0.337083f
};

#endif //COMPLEXFN_2L_MODEL_DATA_H