#ifndef COMPLEXFN_2L_MODEL_DATA_H
#define COMPLEXFN_2L_MODEL_DATA_H

/*
 Author: Mouli Sankaran 
 CAUTION: This is an auto generated file.
 DO NOT EDIT OR MAKE ANY CHANGES TO IT.
 This model data was generated on Wed Apr 14 23:28:18 2021

 Tools used:
 Python:3.7.10 | packaged by conda-forge | (default, Feb 19 2021, 15:37:01) [MSC v.1916 64 bit (AMD64)]
 Numpy:1.19.5
 TensorFlow:3.7.10 | packaged by conda-forge | (default, Feb 19 2021, 15:37:01) [MSC v.1916 64 bit (AMD64)]
 Keras: 2.4.0

 Model details are:
 NUM_OF_EPOCHS = 1500
 BATCH_SIZE    = 16
*/


const int DENSE1_SIZE = 40;
const int DENSE2_SIZE = 32;

float W1_data[] = {
    -0.010601f, -0.102265f, -0.101836f, 0.306793f, 0.000227f, -0.358606f, -0.124949f, 0.239428f, -0.031549f, -0.369159f, -0.043600f, -0.037482f, -0.174766f, 0.269076f, -0.181983f, -0.019926f, -0.041868f, -0.318277f, -0.330541f, -0.081058f, -0.099948f, -0.121972f, 0.199381f, 0.345818f, -0.196707f, -0.244318f, -0.222344f, -0.065919f, -0.020867f, -0.087880f, 0.196374f, -0.003776f, -0.345763f, 0.278211f, 0.183112f, -0.208622f, -0.097669f, 0.187012f, -0.158681f, -0.019372f
};

float b1_data[] = {
    0.000000f, 0.419359f, 0.433603f, -0.537415f, -0.001561f, 0.000000f, 0.000000f, -0.385731f, 0.000000f, 0.000000f, 0.179131f, 0.000000f, 0.000000f, 0.247210f, 0.852073f, 0.000000f, 0.000000f, 0.000000f, 0.000000f, 0.494063f, 0.699179f, 0.731281f, -0.187115f, -0.661180f, 0.000000f, 0.000000f, 1.128281f, 0.630884f, 0.000214f, 0.597566f, -0.301093f, -0.000297f, 0.000000f, -0.374989f, -0.814042f, 0.000000f, 0.000000f, -0.265456f, 0.000000f, 0.000000f
};

float W2_data[] = {
    0.115480f, 0.140259f, 0.238440f, -0.009800f, 0.264595f, 0.131536f, 0.125004f, -0.126164f, -0.033294f, -0.059115f, 0.123862f, -0.073364f, 0.217096f, -0.151216f, 0.034021f, -0.240417f, 0.011268f, 0.005884f, -0.105420f, 0.243993f, 0.080296f, 0.235818f, 0.164735f, 0.172980f, 0.158279f, -0.114019f, 0.056903f, 0.211395f, 0.230792f, 0.076539f, -0.085617f, 0.092718f, -0.496586f, -0.367119f, -0.381098f, -0.428222f, -0.106690f, 0.066029f, 0.295719f, -0.012971f, -0.242696f, 0.022189f, -0.634846f, 0.188482f, 0.049097f, 0.010551f, -0.082508f, -0.069964f, -0.486270f, -0.874145f, -1.927758f, -0.161905f, 0.421841f, -0.549185f, 0.163569f, -0.617018f, 0.252528f, -1.368992f, -0.007209f, -0.234433f, -0.683058f, -1.154645f, -0.574989f, 0.303168f, -0.204344f, -0.110727f, -0.052302f, -0.079498f, 0.250269f, 0.212778f, 0.069732f, 0.002906f, -0.279871f, -0.211214f, -0.036651f, 0.161605f, -0.007657f, 0.109789f, -0.071030f, -0.007773f, -0.044040f, -0.290812f, 0.070869f, -0.247454f, 0.302922f, -0.092826f, 0.358469f, -0.288603f, -0.145262f, 0.108052f, -0.049683f, -0.279216f, 0.031955f, -0.374336f, -0.271040f, 0.438772f, 0.092822f, 0.180036f, -0.163314f, -0.201276f, 0.097198f, 0.195501f, 0.219893f, 0.127087f, 0.112334f, -0.089520f, 0.019596f, -0.784227f, 0.126926f, -0.070396f, -0.174032f, 0.215002f, 0.168923f, 0.180312f, -0.032347f, 0.103849f, -0.167188f, 0.058803f, -0.130104f, 0.328835f, -0.902400f, -0.047597f, -0.149063f, -0.231812f, -0.144618f, 0.018747f, 0.097834f, -0.813154f, 0.124562f, -0.295869f, 0.274254f, 0.068038f, 0.142525f, 0.014764f, -0.093429f, 0.250479f, 0.231326f, -0.173248f, 0.233490f, -0.288339f, 0.210465f, 0.228245f, -2.160147f, 0.252723f, 0.151905f, -0.076647f, -0.239690f, -0.013386f, -0.263058f, -0.070705f, -0.017369f, 0.036460f, -1.532679f, 0.090246f, 0.060471f, 0.022868f, 0.243900f, 0.062492f, -0.222127f, -0.245800f, -0.087227f, -0.080754f, -0.052191f, -0.160988f, 0.010186f, 0.194963f, 0.054695f, 0.026760f, -0.181984f, -0.027322f, 0.257298f, 0.164907f, 0.063584f, -0.142628f, 0.187389f, 0.020877f, 0.052656f, 0.004689f, 0.031434f, 0.149991f, 0.023044f, 0.288397f, -0.095411f, 0.165359f, 0.183853f, -0.223734f, -0.252674f, 0.137460f, 0.250627f, -0.002654f, -0.079948f, 0.116320f, 0.110436f, -0.208088f, 0.201512f, -0.011042f, -0.104940f, -0.140253f, -0.033035f, -0.125827f, -0.158625f, 0.122150f, 0.281517f, -0.067706f, 0.216123f, -0.105518f, -0.224974f, -0.089970f, -0.210990f, 0.278624f, -0.275683f, 0.034291f, -0.147982f, -0.007165f, 0.029073f, 0.163358f, -0.143956f, -0.090030f, -0.199140f, -0.256866f, -0.243368f, -0.193621f, -0.168864f, 0.046599f, 0.327040f, -0.016979f, 0.313918f, 0.212438f, -0.004533f, 0.190022f, -0.165093f, 0.123163f, -0.163062f, 0.034837f, 0.295454f, -1.892847f, -0.260628f, 0.097703f, 0.011110f, -0.072371f, 0.137130f, 0.066076f, -0.276124f, -0.103437f, -0.230795f, -0.114774f, 0.269447f, 0.130839f, -0.407313f, -0.199415f, -0.122274f, -0.122671f, 0.058120f, -0.126602f, -0.112721f, -1.343659f, 0.231796f, -0.136290f, -0.027832f, -0.257501f, 0.181998f, -0.230869f, 0.212183f, 0.178218f, -0.032687f, -0.231315f, -0.058357f, 0.286394f, -0.245659f, 0.062187f, 0.091275f, 0.057931f, 0.250655f, -0.152653f, -0.082946f, 0.083832f, 0.137274f, 0.166871f, 0.095089f, -0.165181f, 0.175825f, 0.095801f, -0.286156f, 0.079966f, 0.047715f, -0.275697f, 0.200196f, -0.051245f, 0.137112f, -0.246769f, 0.096132f, 0.134141f, 0.014748f, -0.267442f, 0.094626f, 0.096322f, 0.203805f, -0.222313f, -0.202427f, 0.209310f, 0.243545f, 0.163361f, -0.160845f, -0.238287f, 0.089823f, -0.246982f, -0.108061f, 0.179297f, -0.183700f, -0.072455f, -0.245309f, -0.279710f, 0.114500f, 0.115372f, -0.047710f, 0.258018f, -0.195271f, -0.027907f, 0.070341f, 0.039845f, -0.066497f, -0.233425f, -0.007644f, -0.283453f, 0.222207f, -0.006314f, 0.001181f, 0.206462f, 0.192095f, 0.144132f, 0.023102f, 0.214957f, 0.085326f, 0.016038f, -0.021330f, 0.239218f, -0.355854f, -0.381922f, -0.033222f, 0.042519f, -0.153472f, -0.046550f, 0.010594f, -0.092867f, -1.022605f, 0.067809f, 0.112532f, 0.098370f, -0.397904f, 0.001972f, 0.083019f, 0.526952f, -0.228053f, -0.043856f, -0.167280f, 0.022689f, 0.009516f, 0.281329f, -0.112297f, -0.172945f, 0.214049f, 0.219476f, -0.250529f, -0.231605f, 0.092308f, -0.288320f, -0.070535f, -0.019160f, 0.085710f, 0.055630f, -0.205498f, 0.068030f, 0.186784f, 0.010513f, -0.250110f, -0.106504f, 0.058082f, -0.237076f, 0.241007f, 0.031649f, 0.014243f, -0.238106f, 0.259068f, 0.025536f, 0.124239f, 0.140180f, 0.211955f, 0.192837f, -0.281713f, -0.181603f, -0.128468f, -0.157580f, 0.044032f, -0.181218f, -0.026105f, -0.162032f, -0.223435f, 0.159400f, -0.177073f, -0.204917f, 0.032532f, -0.281363f, 0.148980f, -0.011158f, 0.024581f, 0.199792f, -0.003633f, -0.205368f, 0.179439f, -0.094450f, 0.224677f, 0.173788f, -0.193055f, -0.119374f, 0.013275f, -0.085495f, 0.066507f, -0.207988f, 0.245300f, 0.250720f, 0.225670f, 0.223527f, 0.284458f, -0.006718f, 0.166158f, 0.068173f, 0.165543f, 0.537051f, 0.202296f, 0.122583f, -1.130022f, 0.278768f, 0.241166f, -0.162361f, 0.106613f, -0.242108f, 0.030473f, -0.047663f, -0.139668f, 0.228174f, -2.255434f, 0.043808f, 0.188409f, -0.111443f, 0.235238f, 0.254068f, 0.298931f, 0.240058f, -2.184930f, -0.025066f, -2.084606f, -2.154226f, 1.442477f, 1.358621f, 1.075127f, 1.204815f, -0.158288f, -0.224262f, -2.207384f, 0.400420f, 0.170913f, -0.645000f, 0.268565f, 1.193292f, -2.428859f, -2.113588f, -1.882497f, 0.136335f, -0.881878f, -2.146803f, 1.385896f, -2.242125f, 0.423583f, -1.898544f, -0.035061f, 0.054162f, -1.895508f, -2.243075f, -2.314465f, 1.112685f, -0.282133f, -0.028696f, 0.115977f, 0.249102f, -0.208805f, 0.223378f, -0.103759f, 0.016619f, -0.000288f, 0.126867f, -0.073301f, 0.052230f, -0.144811f, 0.092526f, 0.000929f, 0.283727f, 0.248662f, 0.196729f, -0.208334f, -0.220335f, -0.190256f, 0.071251f, 0.074621f, 0.043251f, -0.056837f, -0.055856f, -0.065353f, 0.139685f, 0.222008f, -0.228525f, 0.256384f, 0.007972f, 0.247587f, -0.077039f, 0.242119f, -0.117832f, -0.156054f, -0.230646f, -0.246520f, 0.127805f, 0.234872f, 0.072968f, -0.205832f, 0.061375f, 0.052797f, 0.261899f, 0.060799f, -0.233076f, 0.105092f, -0.206493f, 0.259988f, 0.288672f, 0.081393f, 0.026955f, 0.066189f, -0.127203f, -0.006562f, -0.110917f, -0.258574f, 0.151630f, -0.163894f, 0.024012f, -0.178832f, 0.067723f, 0.028121f, 0.074336f, 0.218750f, -0.054491f, 0.006191f, 0.183607f, 0.251222f, -0.134064f, 0.013648f, -0.133963f, -0.210776f, 0.122617f, -0.183542f, 0.105567f, -0.008417f, -0.122604f, -0.114416f, 0.266021f, -0.140964f, 0.177314f, -0.281503f, -0.066684f, -0.023181f, 0.149443f, 0.150648f, -0.170233f, -0.210303f, -0.176787f, 0.214651f, 0.065883f, -0.159534f, 0.219026f, 0.013927f, -0.022965f, -0.014838f, -0.229891f, 0.091675f, -0.116091f, -0.121662f, 0.031272f, 0.144310f, -0.109481f, 0.208418f, -0.206036f, -0.045093f, -0.064746f, -0.247873f, 0.284846f, -0.243418f, 0.175920f, 0.149466f, 0.203336f, -0.073093f, 0.172884f, 0.122013f, 0.108821f, 0.149954f, 0.261653f, 0.062557f, -0.175081f, 0.086271f, -0.141485f, -0.062057f, -0.251170f, 0.016664f, -0.500826f, 0.313058f, 0.124504f, -0.021426f, 0.281101f, 0.431316f, 0.433710f, -0.148206f, 0.056590f, 0.142494f, 0.588424f, 0.074706f, 0.386636f, -0.085812f, 0.120111f, -0.237659f, 0.123564f, 0.371174f, -0.142434f, -0.035758f, 0.259749f, 0.291241f, -0.146832f, 0.189512f, 0.305804f, 0.005083f, -0.280831f, -0.009488f, 0.153069f, 0.217931f, 0.647427f, 0.287831f, -0.385503f, 0.317756f, -0.002005f, 0.142083f, 0.165338f, 0.144420f, 0.098660f, -0.210037f, -0.053154f, 0.224818f, 0.604334f, -0.312313f, 0.516517f, -0.117849f, 0.137878f, 0.368649f, 0.197530f, 0.417700f, 0.093407f, 0.480538f, 0.484989f, 0.236616f, 0.270008f, 0.153018f, 0.205682f, -0.285409f, 0.017502f, -0.065651f, 0.300000f, 0.064496f, 0.780948f, -0.012900f, -0.906132f, 0.022291f, -0.025093f, 0.369616f, 0.225827f, 0.085342f, -0.133331f, -0.109306f, -0.168485f, 0.175637f, 0.507762f, -0.084203f, 0.188931f, 0.257302f, 0.271864f, 0.352242f, 0.522722f, 0.459440f, 0.090509f, 0.314972f, 0.225539f, 0.219526f, 0.322744f, 0.334948f, 0.205468f, 0.171859f, -0.290825f, 0.033084f, 0.230131f, 0.209857f, 0.542974f, 0.369544f, 0.198847f, 0.029659f, 0.319826f, 0.251515f, 0.340346f, 0.336535f, 0.269101f, -0.252496f, -0.233383f, 0.084137f, -1.164610f, 0.034197f, -0.309603f, -0.235576f, -0.083675f, 0.174883f, 0.084218f, 0.133799f, -0.021832f, -0.130449f, 0.022712f, 0.105616f, 0.208656f, 0.731708f, -0.119060f, -0.009740f, -0.269463f, -0.012159f, 0.205377f, 0.270776f, -1.080915f, 0.074066f, 0.250950f, 0.094099f, 0.251986f, 0.201069f, 0.262855f, -0.111329f, 0.287822f, -0.266554f, -0.084486f, -0.205286f, -1.341701f, -0.180881f, -0.072953f, -0.142688f, 0.125956f, -0.013392f, -0.251607f, -0.175136f, 0.173541f, 0.087611f, 0.118145f, 0.146682f, -0.164156f, -0.615887f, -0.006847f, 0.065990f, 0.275005f, 0.161668f, -0.204335f, 0.019574f, -1.452382f, -0.058175f, 0.071869f, 0.102677f, -0.208585f, 0.054606f, -0.217204f, 0.120049f, 0.067964f, -0.103955f, 0.053656f, 0.081723f, -0.032234f, -0.057516f, 0.193800f, -0.188465f, -0.130885f, -0.095562f, -0.025277f, 0.164345f, -0.081724f, 0.160089f, -0.043182f, -0.186266f, 0.010311f, -0.271022f, -0.253697f, 0.194325f, -0.102347f, 0.194333f, 0.191442f, 0.131365f, 0.171491f, 0.101992f, -0.007519f, 0.130017f, -0.055977f, 0.145487f, 0.096104f, 0.022536f, -0.181466f, -0.198966f, -0.088098f, 0.141270f, -0.275393f, 0.221449f, -0.067762f, -0.112407f, 0.062722f, -0.270764f, 0.127202f, 0.260136f, -0.235605f, 0.163224f, 0.072460f, -0.256179f, -0.016714f, -0.171930f, -0.193917f, 0.057866f, -0.275257f, -0.059892f, 0.087769f, -0.186897f, -0.266799f, -2.098806f, 0.014357f, -2.358337f, -2.080941f, 1.509553f, 1.665182f, 1.694658f, 1.675436f, -0.218810f, -0.043227f, -2.159678f, 0.566468f, -0.053726f, -1.158777f, 0.320021f, 1.477078f, -2.118812f, -2.179569f, -2.220008f, -0.067393f, -0.869408f, -1.967682f, 1.458096f, -2.054348f, 0.489027f, -2.144769f, -0.234208f, 0.127948f, -2.213665f, -2.264625f, -2.073128f, 0.996406f, 0.163559f, -0.321734f, 0.423241f, 0.364728f, 0.052419f, -0.135417f, -0.182771f, 0.122336f, 0.076393f, 0.019610f, 0.472551f, 0.322654f, -0.020561f, 0.633106f, -0.095915f, 0.039459f, 0.157693f, 0.324373f, 0.533904f, 0.091973f, 0.575199f, 0.130394f, 0.148736f, 0.176739f, 0.469320f, 0.532725f, 0.252747f, 0.119445f, 0.550030f, 0.534352f, 0.218121f, 0.656475f, 0.022606f, -0.009937f, 0.037258f, -0.270703f, 0.083601f, 0.373981f, 0.147114f, 0.044064f, -0.145300f, 0.019816f, 0.017077f, 0.012123f, 0.231856f, -0.052493f, -0.182443f, -0.104928f, -0.242239f, 0.290154f, -0.048826f, -0.063785f, -0.175078f, -0.234569f, 0.342484f, -0.338248f, -0.105439f, 0.093834f, -0.095015f, -0.210696f, 0.161034f, 0.274889f, -0.044026f, 0.275607f, 0.381680f, 0.056062f, 0.357824f, 0.314869f, 0.196134f, 0.137191f, 0.098118f, -0.068279f, 0.065773f, -0.064039f, 0.183462f, 0.476466f, 0.068617f, 0.274636f, -0.213575f, 0.008776f, 0.323477f, 0.423336f, 0.316312f, -0.042692f, 0.031225f, 0.208983f, -0.015878f, 0.281277f, 0.262372f, 0.451652f, 0.118963f, -0.281745f, 0.036842f, 0.183644f, 0.313927f, 0.335043f, -0.096205f, 0.114071f, -0.125134f, -0.208506f, -0.015069f, -0.188670f, 0.279561f, 0.066804f, 0.118205f, 0.089946f, -0.022298f, -1.431933f, -0.230961f, 0.167284f, -0.254213f, 0.075012f, -0.098999f, 0.245003f, -0.032273f, 0.220070f, -0.234935f, 0.220372f, -0.008205f, 0.201405f, 0.023115f, 0.147098f, -0.127364f, 0.255540f, 0.378307f, 0.169442f, 0.170486f, -1.372382f, 0.245452f, -0.153563f, 0.001955f, 0.248221f, 0.294743f, 0.045920f, 0.309654f, 0.117948f, -0.285765f, -0.071687f, 0.004001f, 0.011283f, -0.280280f, 0.049377f, -0.328491f, 0.372197f, -0.247717f, -0.072363f, 0.252650f, 0.016139f, 0.027431f, 0.024171f, 0.434792f, -0.251200f, -0.698404f, -0.097200f, -0.014432f, 0.253423f, 0.299395f, -0.127540f, 0.028858f, 0.286472f, 0.274745f, 0.094533f, -0.198064f, 0.041434f, 0.287371f, -0.137658f, 0.076405f, -0.168963f, -0.066121f, -0.029602f, 0.114377f, 0.221252f, -0.211488f, 0.056283f, -0.263293f, -0.185143f, -0.120901f, 0.087945f, -0.210321f, -0.053993f, -0.212336f, -0.147353f, 0.281010f, 0.105406f, 0.212883f, -0.241214f, 0.025441f, 0.065380f, 0.234823f, -0.151554f, -0.017768f, -0.047357f, 0.376606f, -0.182261f, -0.068382f, 0.272246f, 0.099300f, 0.350896f, 0.277792f, 0.232206f, -0.081245f, 0.034137f, 0.218038f, -1.265288f, 0.133612f, -0.268971f, 0.124150f, 0.021296f, 0.340967f, 0.251293f, -0.059701f, -0.159429f, 0.208051f, -0.071956f, 0.339891f, 0.212634f, 0.085116f, 0.049165f, -0.280235f, 0.213609f, -0.014790f, -0.095065f, -0.068114f, -1.092659f, -0.750021f, 0.032004f, -0.760856f, -0.781995f, 0.722898f, 0.794794f, 0.520836f, 0.890183f, 0.098007f, -0.063115f, -0.873968f, -0.416293f, 0.142096f, -0.933376f, 0.018442f, 0.617760f, -0.983360f, -0.583384f, -0.940582f, -0.179045f, -1.023138f, -0.910741f, 0.907172f, -0.574201f, -0.639377f, -0.867711f, 0.104077f, 0.047370f, -0.704753f, -0.674976f, -0.965445f, -0.573603f, -0.202219f, -0.013770f, 0.065755f, 0.023308f, 0.115030f, -0.285323f, 0.031958f, 0.177952f, -0.089893f, -0.174640f, -0.221521f, -0.179262f, -0.107758f, 0.245084f, -0.173986f, 0.213052f, -0.243340f, 0.110132f, 0.237544f, 0.275989f, 0.103325f, -0.124815f, 0.276796f, -0.287979f, -0.255257f, -0.124688f, -0.203550f, -0.085984f, 0.025702f, 0.224305f, -0.219478f, -0.216751f, -0.022984f, 0.099725f, -0.029417f, -0.210874f, -0.165789f, 0.264697f, 0.022316f, 0.221482f, -0.253766f, -0.001229f, 0.109856f, 0.069317f, 0.126610f, 0.136836f, 0.218810f, -0.245754f, 0.018882f, 0.083561f, 0.074851f, -0.230363f, -0.201465f, -0.145382f, -0.075205f, 0.245795f, 0.263927f, -0.240472f, -0.049783f, 0.264390f, 0.014494f, 0.046569f, -0.102115f, -0.167637f, 0.150225f, -0.198588f, 0.331402f, 0.011221f, 0.097904f, -0.139718f, 0.342902f, 0.310485f, 0.210135f, 0.130867f, 0.233025f, -1.424037f, -0.345209f, -0.275707f, -0.261555f, 0.318685f, 0.200310f, 0.161196f, -0.039046f, -0.261381f, 0.032607f, 0.281288f, 0.297027f, 0.018929f, -0.063410f, -0.004184f, -0.049620f, -0.109316f, 0.219449f, 0.041734f, -0.195289f, -1.386475f, -0.059088f, 0.236554f, -0.099643f, -0.142841f, -0.121559f, 0.245736f, -0.014532f, 0.148918f, 0.100575f, -0.246407f, -0.285472f, -0.154804f, 0.236561f, -0.157775f, 0.208215f, 0.065376f, -0.066393f, -0.167348f, 0.032387f, -0.104886f, -0.283518f, 0.042161f, 0.275864f, -0.037219f, 0.209876f, -0.090735f, 0.208471f, -0.259889f, 0.192815f, -0.091364f, 0.134113f, -0.010522f, 0.110709f, -0.114868f, -0.113101f, 0.191890f, 0.010191f, 0.197065f, -0.182040f, -0.029477f, 0.016072f, -0.013434f, 0.108976f, -0.027767f, -0.105538f, 0.204864f, -0.248398f, -0.281693f, -0.235313f, -0.210895f, 0.142237f, 0.034010f, -0.248567f, 0.256423f, 0.015520f, 0.145044f, -0.286407f, 0.153751f, 0.245696f, 0.043359f, 0.252482f, 0.022352f, -0.214085f, -0.197567f
};

float b2_data[] = {
    0.457311f, -0.039621f, 0.453754f, 0.423487f, -0.241519f, -0.101401f, -0.159425f, -0.053480f, 0.000000f, 0.000000f, 0.464353f, 0.532853f, -0.059943f, 0.339411f, -0.006009f, -0.142895f, 0.429504f, 0.472071f, 0.473174f, 0.000000f, 0.426874f, 0.434100f, -0.173095f, 0.432391f, -0.125450f, 0.465634f, -0.031727f, -0.012649f, 0.438743f, 0.430636f, 0.448002f, 0.921590f
};

float W3_data[] = {
    0.545778f, 0.079103f, 0.600473f, 0.500079f, -0.392322f, -0.535466f, -0.386396f, -0.315640f, 0.298006f, 0.370343f, 0.767526f, 1.395760f, -0.055874f, -0.453200f, 2.975275f, -0.287431f, 0.542844f, 0.425642f, 0.624390f, -0.038646f, 0.540858f, 0.270175f, -0.600803f, 0.364464f, -2.564908f, 0.376583f, -0.236012f, -0.228434f, 0.608506f, 0.607307f, 0.672155f, 1.779419f
};

float b3_data[] = {
    0.189980f
};

#endif //COMPLEXFN_2L_MODEL_DATA_H